
function network(input) {
      var net = {"layers":[{"0":{},"1":{},"2":{},"3":{},"4":{},"5":{},"6":{},"7":{},"8":{},"9":{},"10":{},"11":{}},{"0":{"bias":0.1677220933088337,"weights":{"0":0.1491314228667567,"1":-0.17807222964039862,"2":-0.23017161220405122,"3":-0.26226647141924664,"4":-0.15772143974465944,"5":-0.3224904877557357,"6":-0.4667402690000859,"7":-0.40484017461726124,"8":-0.6080270233692525,"9":-0.6696584849775242,"10":-0.5756597691869081,"11":-0.650679908069074}},"1":{"bias":-0.1721472198767325,"weights":{"0":0.08173514769414474,"1":-0.09127290399633255,"2":0.020467847567199476,"3":-0.15240649953402483,"4":-0.1261559910832323,"5":-0.3338349962426456,"6":-0.40163304837985886,"7":-0.4874171905351191,"8":-0.5856024637749295,"9":-0.3729886340576515,"10":-0.26742039637513015,"11":-0.3506712158453374}},"2":{"bias":-0.43892276228512367,"weights":{"0":-0.2067955932096011,"1":0.3976819682060467,"2":-0.20159752285850438,"3":0.10404268937966704,"4":0.18737911777715774,"5":0.4556227658873075,"6":0.5428526970635597,"7":0.7946437184625833,"8":0.815016378602135,"9":0.9909453601479963,"10":0.9652481600949414,"11":0.8436145844101579}},"3":{"bias":0.17207145904042773,"weights":{"0":-0.14672378137572994,"1":-0.3996664794265953,"2":-0.05810029781325782,"3":-0.17144478005760516,"4":-0.3627580047217241,"5":-0.23545718445579086,"6":-0.5068670484097744,"7":-0.2258137817308749,"8":-0.27916800966364447,"9":-0.2909977872931799,"10":-0.5431679747455485,"11":-0.5639989296424661}},"4":{"bias":0.12316625872832948,"weights":{"0":-0.10764644664345327,"1":-0.12903303606021446,"2":0.06724838605131224,"3":-0.1582042323939247,"4":-0.12115445313375872,"5":-0.24959521203157425,"6":-0.3854205975952661,"7":-0.7144227736629486,"8":-0.7118831113172696,"9":-0.6648759999849556,"10":-0.7303721873166237,"11":-0.7677081077257999}},"5":{"bias":-0.06713289858929682,"weights":{"0":-0.2379203444085627,"1":-0.32023942394676613,"2":-0.06867450039351586,"3":0.03901636772403734,"4":-0.1986091429964491,"5":-0.330739458780564,"6":-0.21648556547503842,"7":-0.48135416120929214,"8":-0.2494734847096396,"9":-0.48011692874565814,"10":-0.21615515765347837,"11":-0.41479440200232864}}},{"0":{"bias":-1.4630628281649403,"weights":{"0":1.3298184112928026,"1":0.7520615987224836,"2":-3.4948632235863113,"3":0.887609525360295,"4":1.6576960518630874,"5":0.702088032661582}}}],"outputLookup":false,"inputLookup":false};
      for (var i = 1; i < net.layers.length; i++) {
        var layer = net.layers[i];
        var output = {};
                        
        for (var id in layer) {
            var node = layer[id];
            var sum = node.bias;
               
            for (var iid in node.weights) {
                sum += node.weights[iid] * input[iid];
            }
            output[id] = (1 / (1 + Math.exp(-sum)));
        }
        input = output;
        }
        return output;
}

module.exports.network = network;
